digraph Tree {
node [shape=box];
0 [label="X[452] <= -0.025\ngini = 0.449\nsamples = 17481\nvalue = [11536, 5945]"];
1 [label="X[1490] <= 0.735\ngini = 0.308\nsamples = 5067\nvalue = [963, 4104]"];
0 -> 1  [headlabel="True", labelangle=45, labeldistance="2.5"];
2 [label="X[970] <= 54.5\ngini = 0.112\nsamples = 4075\nvalue = [242, 3833]"];
1 -> 2;
3 [label="X[98] <= 8.39\ngini = 0.01\nsamples = 3619\nvalue = [18, 3601]"];
2 -> 3;
4 [label="gini = 0.002\nsamples = 3599\nvalue = [4, 3595]"];
3 -> 4;
5 [label="gini = 0.42\nsamples = 20\nvalue = [14, 6]"];
3 -> 5;
6 [label="X[313] <= 419.795\ngini = 0.5\nsamples = 456\nvalue = [224, 232]"];
2 -> 6;
7 [label="gini = 0.494\nsamples = 362\nvalue = [161, 201]"];
6 -> 7;
8 [label="gini = 0.442\nsamples = 94\nvalue = [63, 31]"];
6 -> 8;
9 [label="X[951] <= -2.685\ngini = 0.397\nsamples = 992\nvalue = [721, 271]"];
1 -> 9;
10 [label="X[923] <= 1.5\ngini = 0.139\nsamples = 573\nvalue = [530, 43]"];
9 -> 10;
11 [label="gini = 0.012\nsamples = 487\nvalue = [484, 3]"];
10 -> 11;
12 [label="gini = 0.498\nsamples = 86\nvalue = [46, 40]"];
10 -> 12;
13 [label="X[298] <= 2.5\ngini = 0.496\nsamples = 419\nvalue = [191, 228]"];
9 -> 13;
14 [label="gini = 0.0\nsamples = 56\nvalue = [0, 56]"];
13 -> 14;
15 [label="gini = 0.499\nsamples = 363\nvalue = [191, 172]"];
13 -> 15;
16 [label="X[1131] <= -1.37\ngini = 0.253\nsamples = 12414\nvalue = [10573, 1841]"];
0 -> 16  [headlabel="False", labelangle="-45", labeldistance="2.5"];
17 [label="X[452] <= 0.33\ngini = 0.075\nsamples = 8916\nvalue = [8566, 350]"];
16 -> 17;
18 [label="X[680] <= -0.315\ngini = 0.018\nsamples = 8380\nvalue = [8302, 78]"];
17 -> 18;
19 [label="gini = 0.431\nsamples = 89\nvalue = [28, 61]"];
18 -> 19;
20 [label="gini = 0.004\nsamples = 8291\nvalue = [8274, 17]"];
18 -> 20;
21 [label="X[994] <= 25.5\ngini = 0.5\nsamples = 536\nvalue = [264, 272]"];
17 -> 21;
22 [label="gini = 0.193\nsamples = 37\nvalue = [4, 33]"];
21 -> 22;
23 [label="gini = 0.499\nsamples = 499\nvalue = [260, 239]"];
21 -> 23;
24 [label="X[758] <= 1.515\ngini = 0.489\nsamples = 3498\nvalue = [2007, 1491]"];
16 -> 24;
25 [label="X[766] <= 5.5\ngini = 0.457\nsamples = 1925\nvalue = [681, 1244]"];
24 -> 25;
26 [label="gini = 0.029\nsamples = 541\nvalue = [8, 533]"];
25 -> 26;
27 [label="gini = 0.5\nsamples = 1384\nvalue = [673, 711]"];
25 -> 27;
28 [label="X[1067] <= 1.5\ngini = 0.265\nsamples = 1573\nvalue = [1326, 247]"];
24 -> 28;
29 [label="gini = 0.133\nsamples = 1260\nvalue = [1170, 90]"];
28 -> 29;
30 [label="gini = 0.5\nsamples = 313\nvalue = [156, 157]"];
28 -> 30;
"\n";
}
